solver_type L2R_LR
nr_class 2
label 1 -1
nr_feature 57
bias 0.000000000000000
w
-0.1114022033479597 
-0.2191135205983571 
-0.06175959879197564 
0.1461583116012791 
0.4315093148612765 
0.2443750583414409 
0.8111825494258311 
0.4154575649223088 
0.1657703309818585 
0.07098733915646849 
0.1330721127629823 
-0.4400556671309371 
0.02421617249682053 
-0.06516704466189116 
0.1909350873969184 
0.7736429438008771 
0.4948103675085144 
0.2709117418050395 
-0.03589522492101960 
0.1985214284935468 
0.03524742458443932 
0.04103886175700962 
0.7131599577703445 
0.4707476191924559 
-1.413232038490477 
-0.7602073239157817 
-1.150098848122468 
-0.1927895679883778 
-0.3691689143916217 
-0.2726583059637408 
-0.1915237715375666 
-0.07412489146116079 
-0.6595320039896420 
-0.07739974301526732 
-0.3371794064933094 
-0.1337940960822379 
-0.5310038082576670 
-0.1193410334278425 
-0.3572771473961351 
-0.1027706676307179 
-0.2804787691073786 
-0.7806953613038812 
-0.2105286220145271 
-0.5284467708721063 
-0.8431964786496408 
-1.019353070312402 
-0.06688650711106600 
-0.2822964640333744 
-0.3680376297115371 
-0.4071806016114215 
-0.1126199362301155 
0.4784717137376877 
0.4936423685960785 
0.1258710228559672 
-0.01248188309555322 
0.007646813340877656 
0.0002166517288024624 
0 
